12 40
UniversityofCaliforniaLosAngeles 0.004214 -0.000049 -0.008666 -0.005687 0.010058 0.004177 -0.010772 0.003158 0.000153 -0.010373 0.006518 0.012695 -0.006990 0.011213 0.011451 -0.002328 -0.006450 -0.011840 -0.003022 -0.007796 0.005525 -0.003972 0.001347 0.008632 -0.009897 0.009964 0.010773 0.009828 -0.001283 -0.002406 -0.007898 -0.000277 -0.002583 -0.005472 -0.006231 0.011249 -0.011161 0.001869 -0.003201 0.009715
FudanUniversity -0.004647 0.006423 0.002497 0.003885 0.006668 -0.010113 -0.004473 0.001518 0.005622 0.008309 0.009551 0.006851 0.001486 -0.007442 -0.009478 0.003447 0.009570 -0.001072 -0.004821 0.005138 -0.008605 0.010317 0.001188 -0.001814 -0.010269 -0.008166 -0.006748 0.011537 0.005374 -0.001548 0.001228 -0.004168 -0.009850 -0.002295 0.003007 0.004296 -0.000653 -0.004766 -0.003322 0.004293
StateUniversityofNewYorkatAlbany -0.012232 0.008137 0.005539 0.007504 -0.006215 0.008852 0.010244 -0.009085 0.003172 -0.010981 -0.002913 0.005483 -0.009654 -0.003567 0.008671 -0.007930 0.003837 -0.002304 0.001123 0.007431 -0.004425 0.009257 -0.005353 0.004337 -0.002064 0.003194 -0.005234 0.010175 0.009413 -0.004586 0.004952 -0.010539 0.012389 0.006915 0.004290 0.000221 -0.000681 -0.009896 -0.003376 -0.007374
NanjingUniversity 0.007690 -0.010814 -0.010678 0.008256 0.003878 -0.011711 -0.010263 0.005105 -0.001160 -0.002307 0.012490 -0.008890 0.004465 -0.009868 0.010362 0.011329 -0.001429 -0.008553 -0.005058 -0.007393 0.010881 0.010772 0.005987 0.001184 -0.007834 -0.006779 0.012125 0.002977 0.000795 -0.003728 0.011352 0.004745 -0.005331 -0.000410 0.009759 0.008361 0.011310 0.000447 -0.001088 -0.009162
JiongYang,WeiWang,PhilipS.Yu 0.004637 0.005853 0.002092 -0.009531 -0.010594 -0.001567 0.000895 0.007395 0.009982 -0.007806 -0.010555 0.011893 -0.001239 -0.003419 -0.006027 -0.002028 0.010671 -0.004637 -0.008597 -0.010062 -0.009935 -0.010373 -0.008851 -0.002944 0.011884 -0.006636 -0.005348 -0.007182 0.010686 0.000222 -0.000492 0.000985 0.006077 -0.011280 0.011300 0.000416 -0.011393 0.005859 -0.005020 -0.007677
UniversityofWaterloo -0.001003 -0.010512 0.004527 0.005359 0.000553 -0.012253 0.011184 0.000754 -0.005708 -0.001049 -0.001475 0.006883 0.004765 0.007757 -0.006078 0.005526 -0.009736 -0.004391 -0.010087 0.003641 0.006030 0.004148 0.010623 -0.008145 0.006390 0.005769 0.009244 0.000379 0.001264 -0.008513 -0.005193 0.010527 0.008519 0.006041 -0.001175 0.003095 -0.010320 0.000527 -0.007017 -0.004027
LanguageWeaver 0.006823 0.007118 0.006554 -0.006316 0.010270 0.010638 0.003021 -0.009390 0.000338 -0.008451 0.003534 0.006063 -0.001320 -0.011017 -0.008980 -0.010830 -0.004034 0.005459 0.003091 0.007516 -0.005305 -0.009125 0.008233 -0.011021 -0.005513 0.003838 -0.005531 0.007092 -0.007258 0.006625 0.006222 0.003738 -0.010534 -0.000337 0.012018 -0.009628 -0.002729 -0.008843 -0.009763 -0.010407
WeiWang,MichaelW.Godfrey -0.003671 0.012330 -0.008248 0.007768 -0.008505 0.006107 -0.010201 -0.003468 -0.002056 0.010531 -0.010000 0.001087 -0.011057 -0.001467 0.007348 0.005189 -0.008760 -0.012639 0.004572 0.010010 0.010562 0.004810 0.012254 0.001132 -0.007430 -0.000251 -0.011164 -0.011443 0.005923 0.004444 0.001612 0.002776 -0.002265 0.002795 0.000965 -0.011277 -0.002141 -0.008893 -0.003565 0.002596
BangWang,KeeChaingChua,VikramSrinivasan,WeiWang -0.009783 -0.004193 -0.011998 -0.000784 0.009283 -0.006611 0.004171 0.010373 0.010874 0.004241 0.008742 0.009536 -0.004108 0.007566 0.006540 -0.004201 -0.008493 -0.004397 0.006934 0.000268 0.002405 -0.010596 0.006040 0.001377 0.006332 0.004536 -0.002586 -0.000779 0.003584 -0.008995 -0.000316 -0.002634 -0.004556 0.009278 0.009505 0.003205 -0.011427 0.000427 -0.004445 -0.004174
WeiWang,VikramSrinivasan,KeeChaingChua -0.004474 -0.005668 -0.000996 0.011244 0.007380 -0.001736 0.005568 0.005100 -0.001474 -0.000470 0.010782 -0.011711 0.008652 0.006060 -0.004361 0.002553 -0.010031 0.009773 0.007489 0.006863 0.001303 0.003705 0.004032 -0.001979 0.008142 -0.009973 0.005972 -0.006533 -0.007087 -0.002890 -0.004596 -0.008134 0.001007 -0.001667 -0.007052 -0.004535 0.002600 -0.005357 0.007023 0.007678
WeiWang,JiongYang 0.010756 0.007024 -0.000003 -0.004563 0.008960 0.010632 0.012126 0.010111 0.007018 0.008447 -0.001076 0.002258 -0.005622 -0.005227 -0.011040 -0.009417 -0.000852 -0.004145 -0.003975 -0.003612 0.012495 -0.000451 0.008950 -0.010950 0.011603 0.011590 -0.001950 -0.003569 0.012141 0.009391 -0.006276 0.001626 -0.003411 -0.002135 0.003768 0.002120 0.006791 -0.008600 0.005501 0.004438
WeiWang,JiongYang,RichardR.Muntz 0.002873 -0.004624 0.004296 -0.005215 -0.001941 -0.005889 -0.005944 -0.002495 0.006409 0.007581 -0.002726 0.000413 0.001036 -0.010800 0.000643 -0.010808 -0.008837 -0.010936 0.005278 -0.001963 0.004264 0.005833 0.010831 0.010428 0.003438 -0.004269 0.006562 0.007336 0.011761 0.002929 -0.009891 0.012032 -0.004589 0.009621 -0.005627 0.002214 0.008557 -0.007524 -0.012130 0.004910
